,SPY,XLB,XLE,XLF,XLI,XLK,XLP,XLU,XLV,XLY
2000-02-01,0.0,0.0,0.0,0.0,0.0,0.0,0.0,0.0,0.0,0.0
2000-03-01,0.0,0.0,0.0,0.0,0.0,0.0,0.0,0.0,0.0,0.0
2000-04-01,0.0,0.0,0.0,0.0,0.0,0.0,0.0,0.0,0.0,0.0
2000-05-01,0.0,0.0,0.0,0.0,0.0,0.0,0.0,0.0,0.0,0.0
2000-06-01,0.0,0.0,0.0,0.0,0.0,0.0,0.0,0.0,0.0,0.0
2000-07-01,0.0,0.0,0.0,0.0,0.0,0.0,0.0,0.0,0.0,0.0
2000-08-01,0.0,0.0,0.0,0.0,0.0,0.0,0.0,0.0,0.0,0.0
2000-09-01,0.0,0.0,0.0,0.0,0.0,0.0,0.0,0.0,0.0,0.0
2000-10-01,0.0,0.0,0.0,0.0,0.0,0.0,0.0,0.0,0.0,0.0
2000-11-01,0.0,0.0,0.0,0.0,0.0,0.0,0.0,0.0,0.0,0.0
2000-12-01,0.0,0.0,0.0,0.0,0.0,0.0,0.0,0.0,0.0,0.0
2001-01-01,0.0,0.0,0.0,0.0,0.0,0.0,0.0,0.0,0.0,0.0
2001-02-01,0.0,0.0,0.0,0.0,0.0,0.0,0.0,0.0,0.0,0.0
2001-03-01,0.0,0.0,0.0,0.0,0.0,0.0,0.0,0.0,0.0,0.0
2001-04-01,0.0,0.0,0.0,0.0,0.0,0.0,0.0,0.0,0.0,0.0
2001-05-01,0.0,0.0,0.0,0.0,0.0,0.0,0.0,0.0,0.0,0.0
2001-06-01,0.0,0.0,0.0,0.0,0.0,0.0,0.0,0.0,0.0,0.0
2001-07-01,0.0,0.0,0.0,0.0,0.0,0.0,0.0,0.0,0.0,0.0
2001-08-01,0.0,0.0,0.0,0.0,0.0,0.0,0.0,0.0,0.0,0.0
2001-09-01,0.0,0.0,0.0,0.0,0.0,0.0,0.0,0.0,0.0,0.0
2001-10-01,0.0,0.0,0.0,0.0,0.0,0.0,0.0,0.0,0.0,0.0
2001-11-01,0.0,0.0,0.0,0.0,0.0,0.0,0.0,0.0,0.0,0.0
2001-12-01,0.0,0.0,0.0,0.0,0.0,0.0,0.0,0.0,0.0,0.0
2002-01-01,0.0,0.0,0.0,0.0,0.0,0.0,0.0,0.0,0.0,0.0
2002-02-01,0.0,0.0,0.0,0.0,0.0,0.0,0.0,0.0,0.0,0.0
2002-03-01,0.0,0.0,0.0,0.0,0.0,0.0,0.0,0.0,0.0,0.0
2002-04-01,0.0,0.0,0.0,0.0,0.0,0.0,0.0,0.0,0.0,0.0
2002-05-01,0.0,0.0,0.0,0.0,0.0,0.0,0.0,0.0,0.0,0.0
2002-06-01,0.0,0.0,0.0,0.0,0.0,0.0,0.0,0.0,0.0,0.0
2002-07-01,0.0,0.0,0.0,0.0,0.0,0.0,0.0,0.0,0.0,0.0
2002-08-01,0.0,0.0,0.0,0.0,0.0,0.0,0.0,0.0,0.0,0.0
2002-09-01,0.0,0.0,0.0,0.0,0.0,0.0,0.0,0.0,0.0,0.0
2002-10-01,0.0,0.0,0.0,0.0,0.0,0.0,0.0,0.0,0.0,0.0
2002-11-01,0.0,0.0,0.0,0.0,0.0,0.0,0.0,0.0,0.0,0.0
2002-12-01,0.0,0.0,0.0,0.0,0.0,0.0,0.0,0.0,0.0,0.0
2003-01-01,0.0,0.0,0.0,0.0,0.0,0.0,0.0,0.0,0.0,0.0
2003-02-01,0.0,0.0,0.0,0.0,0.0,0.0,0.0,0.0,0.0,0.0
2003-03-01,0.0,0.0,0.0,0.0,0.0,0.0,0.0,0.0,0.0,0.0
2003-04-01,0.0,0.0,0.0,0.0,0.0,0.0,0.0,0.0,0.0,0.0
2003-05-01,0.0,0.0,0.0,0.0,0.0,0.0,0.0,0.0,0.0,0.0
2003-06-01,0.0,0.0,0.0,0.0,0.0,0.0,0.0,0.0,0.0,0.0
2003-07-01,0.0,0.0,0.0,0.0,0.0,0.0,0.0,0.0,0.0,0.0
2003-08-01,0.0,0.0,0.0,0.0,0.0,0.0,0.0,0.0,0.0,0.0
2003-09-01,0.0,0.0,0.0,0.0,0.0,0.0,0.0,0.0,0.0,0.0
2003-10-01,0.0,0.0,0.0,0.0,0.0,0.0,0.0,0.0,0.0,0.0
2003-11-01,0.0,0.0,0.0,0.0,0.0,0.0,0.0,0.0,0.0,0.0
2003-12-01,0.0,0.0,0.0,0.0,0.0,0.0,0.0,0.0,0.0,0.0
2004-01-01,0.0,0.0,0.0,0.0,0.0,0.0,0.0,0.0,0.0,0.0
2004-02-01,-0.2986860077525196,-0.08388933673146833,0.0,0.0,-0.2147704110984411,-0.2527498898898998,0.0,0.0,-0.09034373308888366,-0.059560621438787355
2004-03-01,-0.2986860077525196,-0.08388933673146833,0.0,0.0,-0.2147704110984411,-0.2527498898898998,0.0,0.0,-0.09034373308888366,-0.059560621438787355
2004-04-01,-0.2986860077525196,-0.08388933673146833,0.0,0.0,-0.2147704110984411,-0.2527498898898998,0.0,0.0,-0.09034373308888366,-0.059560621438787355
2004-05-01,-0.2986860077525196,-0.08388933673146833,0.0,0.0,-0.2147704110984411,-0.2527498898898998,0.0,0.0,-0.09034373308888366,-0.059560621438787355
2004-06-01,-0.2969703083173521,-0.05550350196539443,0.0,0.0,-0.24859037893522087,-0.2560854467996564,0.0,0.0,-0.09075508050554178,-0.05209528347683431
2004-07-01,-0.3009690653128409,-0.044738711190129954,0.0,0.0,-0.24658514120124359,-0.25508163379955706,0.0,0.0,-0.09924894176686566,-0.053376506729362984
2004-08-01,-0.3283840423398148,-0.011455882737357431,0.0,0.0,-0.2373607564661679,-0.28662855775585844,0.0,0.0,-0.1076094196421299,-0.02856134105867146
2004-09-01,-0.3226318722608178,-0.0012203999255478103,0.0,0.0,-0.2522288028231474,-0.27576004127553116,0.0,0.0,-0.10859458752976814,-0.03956429618518763
2004-10-01,-0.3226318722608178,-0.0012203999255478103,0.0,0.0,-0.2522288028231474,-0.27576004127553116,0.0,0.0,-0.10859458752976814,-0.03956429618518763
2004-11-01,-0.2562261660325648,0.06167248395373023,0.0,-0.23294128849509102,0.0,0.0,0.0,-0.3466738624247386,-0.08503022276591991,-0.017455976327955473
2004-12-01,-0.22798071036769124,0.0018083004769294505,0.0,0.0,0.0,0.0,-0.3013018725141198,-0.3654419742294002,-0.08195813751912624,-0.021509004892733104
2005-01-01,-0.20557808750672923,-0.0071402190831117126,0.0,0.0,0.0,0.0,-0.35436489341824096,-0.383682791831692,-0.0425439800703063,-0.006690028089919793
2005-02-01,0.0,-0.05136384610948726,0.0,-0.20340680951977844,0.0,0.0,-0.3613910417255177,-0.3246521824063806,-0.02195097438847407,-0.0372351458503618
2005-03-01,0.0,-0.045715172047102626,0.0,-0.20929751956666734,0.0,0.0,-0.29150469672758694,-0.27612728484280513,-0.08619672129986218,-0.09115860551597575
2005-04-01,0.0,-0.055645780253798356,0.0,-0.18811680905916361,0.0,0.0,-0.31240093259392765,-0.3066550736346597,-0.07733306123387168,-0.0598483432245791
2005-05-01,0.0,-0.035480866116121744,0.0,-0.19171651007760032,0.0,0.0,-0.30219582536282885,-0.35472313406446676,-0.045736571904236085,-0.0701470924747462
2005-06-01,-0.19450113804945016,-0.08252367988135986,0.0,0.0,0.0,0.0,-0.2711924751207557,-0.29400400128235105,-0.0840748570483889,-0.0737038486176942
2005-07-01,0.0,-0.09587963227006285,0.0,0.0,-0.18915373600204685,0.0,-0.28197653991500804,-0.2714263816985161,-0.08838704021581077,-0.0731766698985555
2005-08-01,0.0,-0.0865339282519202,0.0,-0.20333098961808344,0.0,0.0,-0.26864550434291085,-0.266810787859853,-0.09395343817859483,-0.08072535174863749
2005-09-01,0.0,-0.07783058629013033,0.0,-0.19093928064551066,0.0,0.0,-0.2834530952976503,-0.27010845704589603,-0.08073332886825632,-0.09693525185255637
2005-10-01,0.0,0.0,-0.05654500716002246,0.0,-0.1898442808714119,-0.07662802211011698,-0.3610072867171667,-0.2470480829802869,-0.06892732016099505,0.0
2005-11-01,0.0,0.0,-0.0014557490983844895,-0.17342787135309673,0.0,-0.024223113770929915,-0.46912846352269216,-0.29581500795014853,0.035949794304748164,0.0
2005-12-01,0.0,0.0,-0.0448043128241866,0.0,-0.19352831356975633,0.0,-0.4476265226128702,-0.2252896107824241,-0.0013289239674473103,-0.08742231624331546
2006-01-01,-0.17124579648928048,-0.12038597206614621,-0.007129944249491304,0.0,-0.22525011388068403,0.0,-0.3891838534346167,0.0,-0.08680431987978132,0.0
2006-02-01,-0.17124579648928048,-0.12038597206614621,-0.007129944249491304,0.0,-0.22525011388068403,0.0,-0.3891838534346167,0.0,-0.08680431987978132,0.0
2006-03-01,0.0,0.0,0.0035749969508825723,0.0,-0.19692006338015797,-0.12039026587136495,-0.43659602116260454,0.0,-0.07768544803409486,-0.16483320460089532
2006-04-01,0.0,0.0,0.0035749969508825723,0.0,-0.19692006338015797,-0.12039026587136495,-0.43659602116260454,0.0,-0.07768544803409486,-0.16483320460089532
2006-05-01,0.0,0.0,-0.0336803565930573,-0.19024749965717613,-0.17719699700212105,-0.10994229930709477,-0.3937452596888074,0.0,-0.09518758775174344,0.0
2006-06-01,0.0,0.0,-0.0336803565930573,-0.19024749965717613,-0.17719699700212105,-0.10994229930709477,-0.3937452596888074,0.0,-0.09518758775174344,0.0
2006-07-01,0.0,0.0,-0.0336803565930573,-0.19024749965717613,-0.17719699700212105,-0.10994229930709477,-0.3937452596888074,0.0,-0.09518758775174344,0.0
2006-08-01,0.0,0.0,-0.016018181905754957,-0.22473901229576337,-0.21169028043488025,-0.0941332615950921,-0.39638521929275294,0.0,-0.05703404447575636,0.0
2006-09-01,0.0,0.0,0.24233390611247144,-0.1687740066886014,-0.16520987450816343,-0.030509989293539687,-0.3641116986119377,-0.02906052478528626,0.0,0.0
2006-10-01,0.0,0.0,0.21754433710752472,-0.17747815665120908,-0.14448017271145389,-0.02105910382920227,-0.4128393473814349,0.0,-0.026598882319175142,0.0
2006-11-01,0.0,-0.04629879280997554,0.1300966284219344,0.0,0.0,0.13778276742313653,-0.5707190694627113,0.05826392361038672,-0.056838818271855544,0.0
2006-12-01,0.0,-0.04629879280997554,0.1300966284219344,0.0,0.0,0.13778276742313653,-0.5707190694627113,0.05826392361038672,-0.056838818271855544,0.0
2007-01-01,0.0,-0.2644002264466639,0.08496924496984773,0.0,-0.14076971175380654,0.0,-0.40347466791522,0.032345184136592625,0.0,-0.07404096477786928
2007-02-01,0.0,-0.35744229464763094,0.0,0.044970132241264796,0.0,-0.1614841070497265,-0.316848097216483,0.09109735526290959,0.0,-0.0281580135819852
2007-03-01,0.20281234567633227,-0.11235371550415843,0.0422398998495973,0.2447950070078945,0.0,0.0,-0.11495958356876604,0.28283944839325137,0.0,0.0
2007-04-01,0.2486511495472415,0.04149675780715069,-0.010249625893285399,0.27027337708828014,0.0,0.0,0.0685422327259741,0.36078685693806833,0.0,0.0
2007-05-01,0.1950310327976477,-0.032148632148468054,-0.03682156111467344,0.24763836573009904,0.0,0.0,0.0,0.3592217295441988,-0.12913867866491302,0.0
2007-06-01,0.1950310327976477,-0.032148632148468054,-0.03682156111467344,0.24763836573009904,0.0,0.0,0.0,0.3592217295441988,-0.12913867866491302,0.0
2007-07-01,0.2707248738609383,0.0,0.06358768616924251,0.29500626471344643,0.0,0.2417153762588837,0.0,0.0,0.008006828793788051,0.1209589702037011
2007-08-01,0.20911112811006666,0.0,0.0,0.0,0.2292304982339503,0.2783801836896859,0.0716016666281392,0.0,-0.1259417807067219,0.08573474263143623
2007-09-01,0.0,0.0,0.07580193547369274,-0.04139184119923252,0.28509699115466686,0.29953836725466626,0.0,0.0,-0.2602653441776299,-0.03790552074011177
2007-10-01,0.0,0.0,0.12348230603850781,-0.004547253605540094,0.2873576177934624,0.3978375830171191,0.0,0.0,-0.1586142186433832,-0.028161020901987254
2007-11-01,0.18026596060901914,0.0,0.0,0.045928775860362536,0.3215561601114216,0.4073254723818106,0.0,0.0,-0.025879299294627355,-0.01904433174275892
2007-12-01,0.18026596060901914,0.0,0.0,0.045928775860362536,0.3215561601114216,0.4073254723818106,0.0,0.0,-0.025879299294627355,-0.01904433174275892
2008-01-01,0.0,0.0,0.0,-0.010424528486775468,0.3383672062864903,0.0,0.28809712411535915,0.2395970222345596,0.026611107282370393,-0.0969030115944452
2008-02-01,0.0,0.0,0.252415796849994,-0.09802334874438187,0.25458023870828506,0.0,0.17986906682378764,0.0,-0.05214700276963678,-0.16296454610391467
2008-03-01,0.0,0.18555077316455296,0.1608684324848739,-0.04740362099737751,0.2795634570946688,0.0,0.0,0.0,-0.15499066477047307,-0.17162305148805387
2008-04-01,0.0,0.15959985601711515,0.18057315574447583,-0.15723882594442454,0.13795151703740866,0.0,0.0,0.0,-0.17406645360029638,-0.19057019165627945
2008-05-01,0.0,0.15883647052179953,0.16271700465644098,-0.10228740331650354,0.20728437493574497,0.0,0.0,0.0,-0.22556966491026711,-0.143305081659244
2008-06-01,0.0,0.18228339050707495,0.21284317275094503,-0.07309565129546453,0.23575516859671852,0.0,0.0,0.0,-0.20352971507283063,-0.09249290177696619
2008-07-01,0.0,0.17892900852958418,0.23565019417148791,-0.1342795115883567,0.16555699702767152,0.0,0.0,0.0,-0.16901581431759935,-0.11656847436530034
2008-08-01,0.0,0.08385748533729102,0.24935841254177263,-0.20137749974834218,0.0,0.0,0.0,0.06542581316640209,-0.20797807949127173,-0.1920027097149203
2008-09-01,0.0,0.06837568105153315,0.15386593448020036,-0.21504753052991293,0.0,0.0,0.12146916989315192,0.0,-0.18753969439569004,-0.2537019896495117
2008-10-01,-0.15510378656976184,0.0,0.14076914820796854,-0.2593094450037576,0.05184905966671557,0.0,0.23183948299799223,0.0,-0.16112907755380418,0.0
2008-11-01,-0.2306531377786881,0.0,0.03317563482393968,-0.2413155700611617,-0.11020591541521829,0.0,0.15837175940983916,0.0,-0.22627798251115294,0.0
2008-12-01,-0.24464568460319602,0.0,-0.06239001318600596,-0.25075591269197856,-0.16979818434711344,0.0,-0.030495183512667872,0.0,-0.24191502165903808,0.0
2009-01-01,-0.22847486295770378,0.0,-0.07567624395039386,-0.2311391966953184,0.0,0.0,-0.0685907822641963,-0.1694816940563569,-0.22663722007603082,0.0
2009-02-01,-0.2391244245038345,0.0,-0.06353862248944045,-0.26965003951358285,-0.1672244899890046,-0.2287331698164327,-0.031729253687704864,0.0,0.0,0.0
2009-03-01,-0.22511063449323693,-0.20713487837890965,-0.0761271364809706,-0.2559816260277607,0.0,0.0,-0.08862129769949743,0.0,-0.1470244269196247,0.0
2009-04-01,-0.20981473248106983,-0.190102792760231,-0.09979628060177616,-0.22948098885474089,0.0,0.0,-0.10900166317349569,0.0,-0.1618035421286864,0.0
2009-05-01,-0.21037034271266025,-0.1397271073186942,-0.08982668099344883,-0.2354682978217958,0.0,0.0,-0.09688521916031226,-0.2277223519930886,0.0,0.0
2009-06-01,0.0,-0.11071960861189448,-0.07070935968204435,-0.23613749988551203,0.0,0.0,-0.09711946670510029,-0.26322574802167475,-0.22208831709377413,0.0
2009-07-01,-0.24275671431636323,-0.10179833774441521,-0.008176612744177247,-0.26492723793024225,0.0,0.0,-0.04799782986543704,-0.3343432673993651,0.0,0.0
2009-08-01,-0.23576013201476367,-0.13528665972898174,-0.06792786088176196,-0.2543902935690346,0.0,0.0,-0.044569613342080594,-0.26206544046337743,0.0,0.0
2009-09-01,-0.24976538517986005,-0.049322257299544994,-0.02826664564342308,-0.30582322514909444,0.0,0.0,0.0252766321509315,-0.341545854577146,0.0,0.0
2009-10-01,-0.20913760413740387,-0.04739644145101244,0.0,-0.23242481557257286,0.0,0.0,0.046547090957412204,-0.36305312987683913,0.0,-0.10144091800475961
2009-11-01,-0.18816563036886344,-0.024266608856992743,0.0,-0.2314954900293586,0.0,0.0,0.10679845040630442,-0.3827607322130627,0.0,-0.06651308812541813
2009-12-01,-0.16697805841717148,-0.026828479200852837,-0.02856040386221618,-0.2269964363524318,0.0,0.0,0.15711139707320662,-0.39352522509412097,0.0,0.0
2010-01-01,-0.1083787129702535,0.07614264934979037,0.0,-0.23438072843494684,0.0,0.01263595677140669,0.2522993781889188,-0.31616257428468375,0.0,0.0
2010-02-01,-0.08177068579608654,0.10676628131920723,0.0,-0.23512143305092412,0.0,0.07919591029943276,0.24083559343511174,-0.25631009609923744,0.0,0.0
2010-03-01,-0.12983717504202102,0.036260149015746514,0.0,-0.2541716923927049,0.0,0.0,0.22775750912543818,-0.33595881615660134,0.0,0.016014658267488
2010-04-01,-0.08933005425199136,0.05018027846267124,0.0,-0.21884131832916703,0.0,0.0,0.26100750538341516,-0.31499066008660137,0.0,0.06565018348615392
2010-05-01,-0.02489590944452451,0.11479338397523324,0.0,-0.15503879442868013,0.0,0.0,0.31651566466851505,-0.26678405837501923,0.0,0.1219721891080279
2010-06-01,0.0,0.0,0.0,-0.13654434206001617,0.15627513921175537,0.0,0.2887528105226303,-0.2213301280946428,-0.018831199374174025,0.1782663807367815
2010-07-01,0.0,0.0,0.0,-0.2086699402220896,0.048184100931782055,0.0,0.1954200462923976,-0.3392781673556454,-0.11562391716710053,0.09282382803098495
2010-08-01,-0.1589093694184652,0.0,0.0,-0.2510034228784517,0.015213411920536392,0.0,0.14128982910571927,-0.3858922135486096,0.0,0.04769175312821786
2010-09-01,0.0,0.0,0.0,-0.18875554737995817,0.12642153020988478,0.0,0.2576557478758498,-0.22166550537408583,-0.07700440876561555,0.12849726039460585
2010-10-01,0.0,0.0,0.0,-0.24347632688107287,0.08691878280867948,0.0,0.2497179829028366,-0.21010611052387593,-0.09890940183945529,0.11087139504407999
2010-11-01,-0.0427867549690551,0.1232518895995245,0.0,-0.22832253206176933,0.0,0.0,0.32419295676766546,-0.16461807861114275,0.0,0.11682778799084276
2010-12-01,-0.00604348792403706,0.14715223509316777,0.0,-0.20701401423663982,0.0,0.0,0.33607554374547194,-0.156863343198455,0.0,0.14685137580222843
2011-01-01,0.0,0.1632316038552748,0.0,-0.18555875119723678,0.0,0.0,0.31897170870520775,-0.15725104022006928,0.0037047581360228287,0.17128213788618854
2011-02-01,0.0,0.1938774208690711,0.22097465348911707,-0.14062445508935398,0.0,0.0,0.2861812357675145,-0.13072522863441077,0.027617006150532607,0.0
2011-03-01,0.0,0.1991794087969912,0.26414914280947316,-0.12342974522607053,0.0,0.0,0.26538237289471345,-0.10711444680981473,0.040744883462936955,0.0
2011-04-01,0.0,0.1760292053212583,0.2747794603412887,-0.12465628388478245,0.0,0.0,0.2703695874096805,-0.11060465040258592,0.04356081264040414,0.0
2011-05-01,0.0,0.18633335625578348,0.2757283210002438,-0.11262252334062034,0.0,0.0,0.27660504882453457,-0.08193669823560737,0.06677405234321032,0.0
2011-06-01,0.08710403907141405,0.18232985581765426,0.25827628361069016,-0.11229752435033638,0.0,0.0,0.3122676548464668,-0.047724642303438355,0.0,0.0
2011-07-01,0.049432767282152505,0.0,0.2209829114458841,-0.1725970821276163,0.0,0.0,0.3588899666527863,-0.03532215890579846,0.0,0.16277511358576247
2011-08-01,0.0723016714518864,0.0,0.21157763675954874,-0.14201324006725918,0.0,0.0,0.3607815681784142,0.017709681545250953,0.0,0.1956162019976405
2011-09-01,0.06806909356806665,0.0,0.22044794008863722,-0.12470919622093038,0.0,0.0,0.3489180587127455,0.03189231190470708,0.0,0.20596339950491316
2011-10-01,0.01051508159337884,0.0,0.15632766609963605,-0.2150059978138933,0.0,0.0,0.38639541480634493,0.03681345637088818,0.0,0.1949423833158585
2011-11-01,-0.11316547637590078,-0.056253843700147216,0.0,-0.3438514116430443,0.0,0.0,0.3199307397043955,0.0,0.015401683109044356,0.15139684546746782
2011-12-01,-0.0040256669362839104,0.0,0.12402217889973935,-0.24348929585546947,0.0,0.0,0.3644831576578398,0.02921284829999851,0.0,0.234766852350669
2012-01-01,0.03546175410862978,0.0,0.14935340788172058,-0.2101636119459065,0.0,0.0,0.3367805140674101,0.016400385060121543,0.0,0.2518403269362114
2012-02-01,0.044337022852071466,0.0,0.0,-0.1667565923341252,0.0,0.12999529925095785,0.34474759397506893,0.03537324194507588,0.0,0.2787902496427006
2012-03-01,0.08301518681502096,0.0,0.0,-0.12258944660470206,0.0,0.2009499571192895,0.3020378744068848,0.054606328983901525,0.0,0.23680120607020122
2012-04-01,0.0,0.084885115296451,0.0,-0.04561056026946145,0.0,0.24391023144202073,0.2857795626612669,0.09239049811973776,0.0,0.24742403221106216
2012-05-01,0.0,0.08699840422978677,0.0,-0.039804721644703236,0.0,0.2475679481708161,0.28968124824316505,0.08385217192535513,0.0,0.2520955057861737
2012-06-01,0.0,0.0,0.07123099502608901,-0.06235502411470028,0.0,0.21459557186697767,0.313493485228328,0.07467306237309715,0.0,0.2636518613908078
2012-07-01,0.0,0.0203847452855565,-0.03886642718686158,-0.08706327875376994,0.0,0.0,0.3471347819980917,0.0,0.2108390775912619,0.29571168918445845
2012-08-01,0.0,0.06903089565930097,-0.009725964279377611,0.019524011757431018,0.0,0.23164641792692173,0.36310468376485044,0.0,0.0,0.306968026612118
2012-09-01,0.0,0.07331430048533658,0.07901567237886349,-0.004898447667676596,0.0,0.23555415186080983,0.3294946420094356,0.0,0.0,0.2777227855978779
2012-10-01,0.0,0.085012220756921,0.10577568183608554,0.0059668894906243514,0.0,0.24536215734128286,0.3013403205278823,0.0,0.0,0.256542730047204
2012-11-01,0.0,0.12112070500462606,0.12883871702088404,0.022054203956365558,0.0,0.24591079081767495,0.24562529719271411,0.0,0.0,0.23645028600773532
2012-12-01,0.0,0.13212466346053922,0.13543418686332886,0.06163076427890289,0.0,0.2118822417173695,0.23550870224628623,0.0,0.0,0.22341944143357323
2013-01-01,0.0,0.1360144930076069,0.1230828479828798,0.09866535384365255,0.0,0.21169216231235685,0.21684506242178575,0.0,0.0,0.2137000804317182
2013-02-01,0.0,0.0,0.12202175608137986,0.09126691912829683,0.1401444437492075,0.21519298208513601,0.21873270555154445,0.0,0.0,0.2126411934044353
2013-03-01,0.0,0.13550303827195284,0.11137850707183862,0.11948199036216553,0.0,0.19096233253581418,0.22760641711533353,0.0,0.0,0.21506771464289534
2013-04-01,0.0,0.12053318802165296,0.11450194796433787,0.12964174188289343,0.0,0.0,0.23740649598172933,0.20083896678071037,0.0,0.19707765936867608
2013-05-01,0.0,0.10722159847095579,0.10834661183854016,0.11990094112446655,0.0,0.0,0.25132528249560315,0.21318985467439047,0.0,0.2000157113960439
2013-06-01,0.0,0.09922202674877997,0.10564520692825947,0.10897612274678899,0.0,0.0,0.26446517769304667,0.22170006281920235,0.0,0.1999914030639226
2013-07-01,0.0,0.10113320095017943,0.10410033796787253,0.10727736924758421,0.0,0.0,0.26215081500041476,0.0,0.20885494039612273,0.21648333643782627
2013-08-01,0.0,0.10468594697119471,0.1169774107318413,0.10859153235690662,0.0,0.0,0.25151677805365213,0.0,0.19309113631627997,0.22513719557012526
2013-09-01,0.0,0.09014068936872752,0.11681376905537401,0.09900295438511535,0.0,0.0,0.26384700262963784,0.0,0.1984957329738408,0.23169985158730444
2013-10-01,0.0,0.10766568723401566,0.13068052151174703,0.08227188377309133,0.0,0.0,0.24218302862879515,0.0,0.19734675007900787,0.23985212877334283
2013-11-01,0.0,0.10955329412900705,0.12519082820606373,0.08131937691315969,0.0,0.0,0.23589919496105655,0.0,0.2076753698611511,0.24036193592956184
2013-12-01,0.0,0.11380205556369936,0.11461067799251766,0.08564801808545054,0.0,0.0,0.22601010579530642,0.0,0.2150198452778276,0.24490929728519828
2014-01-01,0.0,0.09842262470917487,0.11567481926689632,0.09357235266900882,0.0,0.0,0.22554377243067433,0.0,0.21585901894867543,0.25092741197557006
2014-02-01,0.0,0.10205046908338024,0.0,0.09783846507758058,0.0,0.0,0.23352819834411145,0.10774445186044478,0.21005923060238357,0.24877918503209948
2014-03-01,0.0,0.11755993361866879,0.11737297795190181,0.09660597859345998,0.0,0.0,0.22590569886273976,0.0,0.19944738531853426,0.2431080256546954
2014-04-01,0.0,0.11828164730605066,0.12185380804759682,0.09606574339114948,0.0,0.0,0.2204139870390568,0.0,0.20622767887748394,0.23715713533866223
2014-05-01,0.0,0.10962666364001737,0.12596013719623356,0.08061268772667585,0.0,0.0,0.22379812426709053,0.0,0.2188046090944471,0.24119777807553575
2014-06-01,0.0,0.11296025237222394,0.12783808323140788,0.06765070408138017,0.0,0.0,0.25007231925037143,0.0,0.23770449041419361,0.2037741506504231
2014-07-01,0.0,0.11849018728737257,0.1426623681680691,0.08438141924154928,0.0,0.0,0.2289328422933133,0.0,0.22797550140829376,0.19755768160140208
2014-08-01,0.0,0.12041224163106576,0.13449962988647385,0.08843943207031174,0.0,0.0,0.22442721551271866,0.0,0.21721217385481273,0.2150093070446171
2014-09-01,0.0,0.10856926693369653,0.0,0.0765002225676242,0.0,0.0,0.22911817661276856,0.10718919990288522,0.2485464835320817,0.2300766504509437
2014-10-01,0.0,0.10981864280631586,0.0,0.0975436914667681,0.0,0.0,0.22530059600929087,0.10153093682592061,0.23910271207888026,0.22670342081282432
2014-11-01,0.0,0.09959879482671477,0.10168419634005418,0.0979740163652556,0.0,0.0,0.23699904732813393,0.0,0.24808570987211673,0.21565823526772482
2014-12-01,0.0,0.09265763361221406,0.09713118877617925,0.10443833926237353,0.0,0.0,0.2382973305818453,0.0,0.2555122076787816,0.2119633000886064
2015-01-01,0.0,0.08498482807900083,0.05110238507655944,0.10535856344078605,0.0,0.0,0.26423827799363014,0.0,0.28235187403972456,0.21196407137029882
2015-02-01,0.0,0.07072650197818761,0.034662694722467156,0.09331915472142464,0.0,0.0,0.2739797001226659,0.0,0.2942128034615262,0.23309914499372866
2015-03-01,0.0,0.06334086158238837,-0.0009191852232104488,0.06607003996638684,0.0,0.0,0.3082553151673374,0.0,0.31626327097109075,0.24515132708958615
2015-04-01,0.0,0.0,-0.01053475328655161,0.0804328273450097,0.0,0.0,0.2825825785646588,0.0900079759321189,0.30019847554829604,0.23624338932336494
2015-05-01,0.0,0.06228285076992862,-0.029611948481599013,0.08284831313857856,0.0,0.0,0.2754807849705264,0.0,0.30704908939043846,0.24272701324892884
2015-06-01,0.0,0.08506503622014355,-0.0007703156869434005,0.0,0.0,0.0,0.2657148975694122,0.0802799016068384,0.30883338107846753,0.25933646783819486
2015-07-01,0.0,0.09886962995781702,-0.002455412348019195,0.0,0.0,0.0,0.2407586836034666,0.07034766394947281,0.3195512771819149,0.26801733295930935
2015-08-01,0.0,0.08742967462980977,-0.008517216033966933,0.0,0.0,0.0,0.2635076283547291,0.05758507691027018,0.32441175392934096,0.2585486501418833
2015-09-01,0.0,0.06092832221026937,-0.034060438773390045,0.0,0.0,0.0,0.25389559577751286,0.08885816619003575,0.32678954847891706,0.23546792856987475
2015-10-01,0.0,0.08182812364575244,-0.024548109096185693,0.0,0.0,0.25066543685197756,0.0,0.054211491164621255,0.3022553976329255,0.28649144160853757
2015-11-01,0.0,0.12729079878584465,0.025914339113724667,0.0,0.0,0.22224413637231974,0.0,0.07302311641279217,0.26762389855622115,0.28390371075909776
2015-12-01,0.0,0.12147211766525004,0.006060680136105649,0.0,0.0,0.0,0.23458001358007982,0.0672183187436038,0.2798576412428722,0.29081122863208864
2016-01-01,0.0,0.12306319838255231,-0.019053747864157256,0.0,0.0,0.24026010455029914,0.0,0.044994569430618594,0.2719350175082697,0.3006933622641028
2016-02-01,0.0,0.12306319838255231,-0.019053747864157256,0.0,0.0,0.24026010455029914,0.0,0.044994569430618594,0.2719350175082697,0.3006933622641028
2016-03-01,0.0,0.04463697597770049,-0.0460339222530471,0.0,0.0,0.0,0.27264812315906084,0.10303064572867832,0.23969026693628487,0.2939600659452285
2016-04-01,0.0,0.09108416144701015,-0.06859781937649809,0.0,0.0,0.0,0.2439497059799433,0.09728829143952228,0.233499361366432,0.2655806603905943
2016-05-01,0.0,0.11417820877489648,-0.02236251287338553,0.13227099765053474,0.0,0.0,0.24726022552297344,0.0,0.21804105133885732,0.26588700383935243
2016-06-01,0.0,0.1402327947686693,0.025506412669456104,0.0,0.0,0.0,0.23322729693675803,0.11019978293956009,0.23169939052237398,0.2591343221631825
2016-07-01,0.2132332570662174,0.1515862735541102,0.07256027367449708,0.0,0.21529056199135801,0.0,0.0,0.08437714525401778,0.0,0.26295248845979946
2016-08-01,0.21474374003522093,0.1513109572668247,0.054561188708277066,0.0,0.22582640596439454,0.0,0.0,0.07320393673457579,0.0,0.28035377129070704
2016-09-01,0.0,0.168314318121501,0.008709248647978162,0.0,0.23237138357446518,0.0,0.0,0.06200533364284818,0.2271148458441568,0.3014848701690507
2016-10-01,0.22124872177945734,0.17718634451747006,0.024298290005668636,0.0,0.24639500950149737,0.0,0.0,0.04786370709855336,0.0,0.28300792709735334
2016-11-01,0.0,0.16003480570049308,0.024245220713242,0.0,0.2552589208464427,0.227622855376387,0.0,0.047601377451167194,0.0,0.2852368199122682
2016-12-01,0.0,0.0,0.022416551591055472,0.0,0.23884176984081593,0.2710453911566327,0.0,0.04857084449747602,0.1410489424665623,0.27807650044745763
2017-01-01,0.0,0.0,0.022416551591055472,0.0,0.23884176984081593,0.2710453911566327,0.0,0.04857084449747602,0.1410489424665623,0.27807650044745763
2017-02-01,0.22484067525984627,0.12830699903819215,0.01683573244256015,0.0,0.0,0.2921017208183238,0.0,0.06829525553257669,0.0,0.26961961690850084
2017-03-01,0.21824028991780828,0.14231503035378887,-0.009288041117158785,0.0,0.0,0.29383506645090135,0.0,0.06231179206954942,0.0,0.27400978009079313
2017-04-01,0.21872086899893742,0.0,-0.007685710766845037,0.0,0.0,0.3024612646000254,0.0,0.05045372171382896,0.14919059813126057,0.27148783578910257
2017-05-01,0.2200710294680569,0.0,-0.021266823031144428,0.0,0.0,0.32711204155367585,0.0,0.023683856168249785,0.1278389221497021,0.2800273276291709
2017-06-01,0.21410063164805138,0.0,-0.035431993586805495,0.0,0.0,0.31989278045673714,0.0,0.02289491580273275,0.12946604358817793,0.2782136349174954
2017-07-01,0.1884164225078089,0.0,-0.06671128276253115,0.0,0.0,0.29903245964224373,0.0,0.07953338853607897,0.10883237698629947,0.25747406956503777
2017-08-01,0.20819461472712467,0.0,-0.0484301408673162,0.0,0.0,0.30147905771084915,0.0,0.058279971180605884,0.1458709918283181,0.23774522368578588
2017-09-01,0.20714378539271075,0.0,-0.04083447251624221,0.0,0.0,0.3080390171309079,0.0,0.07499029818210978,0.13628826803588232,0.23270415874214712
2017-10-01,0.21199470862805056,0.0,-0.026919239554097425,0.0,0.0,0.28130209025493713,0.0,0.10828319149789627,0.14182211343837886,0.22967865662663967
2017-11-01,0.2092781459889094,0.0,-0.04005621811759784,0.0,0.0,0.2922600880943939,0.0,0.10376927817663048,0.1328652503185787,0.22177101930388962
2017-12-01,0.2092781459889094,0.0,-0.04005621811759784,0.0,0.0,0.2922600880943939,0.0,0.10376927817663048,0.1328652503185787,0.22177101930388962
2018-01-01,0.20159843701430222,0.0,-0.04510636919092245,0.0,0.0,0.2921196338559922,0.0,0.13285169670995017,0.11283192983988607,0.21549193338894665
2018-02-01,0.0,0.0,-0.020551588075010868,0.0,0.0,0.3064432832406489,0.21877240852197283,0.08897554571657815,0.12469812850129612,0.24055904594449312
2018-03-01,0.0,0.0,-0.020551588075010868,0.0,0.0,0.3064432832406489,0.21877240852197283,0.08897554571657815,0.12469812850129612,0.24055904594449312
2018-04-01,0.0,0.0,-0.020551588075010868,0.0,0.0,0.3064432832406489,0.21877240852197283,0.08897554571657815,0.12469812850129612,0.24055904594449312
2018-05-01,0.0,0.0,-0.020551588075010868,0.0,0.0,0.3064432832406489,0.21877240852197283,0.08897554571657815,0.12469812850129612,0.24055904594449312
2018-06-01,0.2153266804396724,0.0,0.013515689336658535,0.0,0.13767383349841394,0.3027428138502084,0.0,0.06252910946421542,0.0,0.26821187341083125
2018-07-01,0.2153266804396724,0.0,0.013515689336658535,0.0,0.13767383349841394,0.3027428138502084,0.0,0.06252910946421542,0.0,0.26821187341083125
2018-08-01,0.21328127011052844,0.0,0.007101479734687478,0.0,0.1039937563951328,0.2938776220163323,0.0,0.0934337347301435,0.0,0.28831213701317565
2018-09-01,0.20606148234617286,0.0,0.023829766628186814,0.0,0.12464818113495728,0.2562721834587121,0.0,0.11569744471877962,0.0,0.27349094171319127
2018-10-01,0.20832155654496232,0.0,0.007614891158119869,0.0,0.110929571457787,0.2720520207454895,0.0,0.11394491621815908,0.0,0.2871370438754823
2018-11-01,0.2058100891797939,0.12391208806628191,0.053304457600797675,0.0,0.0,0.24804371191111402,0.0,0.0912038465813464,0.0,0.27772580666066615
2018-12-01,0.0,0.11898776299521814,0.012013021473219589,0.0,0.08828924407945785,0.2678213106608654,0.22884035463878122,0.0,0.0,0.2840483061524579
2019-01-01,0.0,0.12830692833383447,0.04484792834753721,0.0,0.09777090243199985,0.2441461704235631,0.20950661037600438,0.0,0.0,0.2754214600870609
2019-02-01,0.19711446456897427,0.0,-0.027665586075297028,0.09902769450903574,0.019675745712487657,0.3158898282346689,0.0,0.0,0.0,0.3406266808995364
2019-03-01,0.195916912949974,0.0,0.0489667924141961,0.0,0.09782710256894799,0.2597212831978086,0.0,0.12427835512995078,0.0,0.27328955373912256
2019-04-01,0.0,0.09994616480639285,0.056631032824052886,0.0,0.10615653876001252,0.25471639910116634,0.0,0.23781316612038578,0.0,0.24473669838798964
2019-05-01,0.0,0.0,0.05670130815428788,0.0,0.11844560652187539,0.27301218483889267,0.0,0.20659778441592386,0.09863497157203793,0.24660814449698232
2019-06-01,0.0,0.11392255178286906,0.01521653798051897,0.0,0.0,0.2950796876813293,0.0,0.22585066063115955,0.07751468612685544,0.2724158757972678
2019-07-01,0.0,0.0,0.004835104442047455,0.0,0.10921786008754343,0.2684928977042266,0.0,0.29709617606884314,0.0559620691860872,0.2643958925112522
2019-08-01,0.0,0.0,0.03888151008895043,0.0,0.12286748981867379,0.2584227000383293,0.0,0.24363628095896667,0.08368000067377841,0.2525120184213015
2019-09-01,0.0,0.0,0.08059501891108783,0.0,0.13114383963702148,0.2587968765165936,0.0,0.21320750625038057,0.07545097883772882,0.24080577984718757
2019-10-01,0.0,0.0,0.055869773148411614,0.0,0.1248669431740921,0.0,0.23962009031870607,0.23658841611995318,0.10714530178030779,0.23590947545852917
2019-11-01,0.0,0.0,0.07515513353732868,0.0,0.13161915078855543,0.0,0.22780314267652355,0.22432700335273098,0.11581369912159296,0.2252818705232684
2019-12-01,0.0,0.0,0.03938790071921282,0.0,0.11601714358950051,0.0,0.242969909352424,0.2660380711930396,0.09482636476536932,0.24076061038045388
2020-01-01,0.0,0.0,0.040966009416440054,0.0,0.11169781938990314,0.23126408435249385,0.2508306164005863,0.24393036909063923,0.12131110134993735,0.0
2020-02-01,0.0,0.0,0.0616831424763698,0.0,0.1143856950923952,0.23302657689750178,0.23161209587431847,0.23035936080942304,0.12893312884999178,0.0
2020-03-01,0.0,0.21253386445960845,0.07362512578801243,0.0,0.12602445779210827,0.21934649822414304,0.0,0.0,0.15198146399434181,0.21648858974178598
2020-04-01,0.2166921101974188,0.0,0.040260074755082684,0.0,0.0867417610376759,0.26051974182109894,0.0,0.0,0.16654987908357416,0.22923643310514946
2020-05-01,0.0,0.0,-0.25384037822940714,-0.03948031835638324,-0.1604391625733831,0.2748179743197885,0.0,0.0,0.15741067389072025,0.11401149263031764
2020-06-01,0.0,-0.07966622216527032,-0.28056498050820605,0.0,-0.14578714268941506,0.2794115878660926,0.11113226579643565,0.0,0.10343780097458025,0.0
2020-07-01,0.0,-0.07966622216527032,-0.28056498050820605,0.0,-0.14578714268941506,0.2794115878660926,0.11113226579643565,0.0,0.10343780097458025,0.0
2020-08-01,0.0,-0.07966622216527032,-0.28056498050820605,0.0,-0.14578714268941506,0.2794115878660926,0.11113226579643565,0.0,0.10343780097458025,0.0
2020-09-01,0.0,-0.1358101518913868,-0.26786579939430194,0.0,-0.18561017574072575,0.23401665462077736,0.12236327450500221,0.0,0.0,0.05433394384780589
2020-10-01,0.0,-0.13073103659442253,-0.27373779032661155,0.0,-0.17873705205257487,0.2013710055878897,0.12111071026464267,0.0,0.09431240517385853,0.0
2020-11-01,0.0,-0.10985054748259118,-0.2886363277681239,0.0,-0.174389244368587,0.18205376975733195,0.14996623588913632,0.0,0.09510387473422958,0.0
2020-12-01,0.0,0.0,-0.2541559883311674,-0.10450813287696308,-0.14037070542461666,0.18033192243615837,0.14734580758140264,0.0,0.1732874433496919,0.0
2021-01-01,0.0,0.0,-0.2541559883311674,-0.10450813287696308,-0.14037070542461666,0.18033192243615837,0.14734580758140264,0.0,0.1732874433496919,0.0
2021-02-01,0.0,0.0,-0.29436673119612433,-0.1393983148831074,-0.15557404429645183,0.15193212995850994,0.10334674424010866,0.0,0.1553820354256979,0.0
2021-03-01,0.0,-0.14988286287776154,-0.24840623840275478,0.0,-0.17902256950706158,0.15719152508255152,0.0,0.0,0.16643256813243348,0.09906423599743716
2021-04-01,0.0,-0.14988286287776154,-0.24840623840275478,0.0,-0.17902256950706158,0.15719152508255152,0.0,0.0,0.16643256813243348,0.09906423599743716
2021-05-01,0.0,-0.14988286287776154,-0.24840623840275478,0.0,-0.17902256950706158,0.15719152508255152,0.0,0.0,0.16643256813243348,0.09906423599743716
2021-06-01,0.0,-0.17895684284266045,-0.24437307433455754,0.0,-0.20798080158472107,0.13922576058994804,0.0,0.0,0.15358180929576357,0.07588171135234943
2021-07-01,0.0,-0.17895684284266045,-0.24437307433455754,0.0,-0.20798080158472107,0.13922576058994804,0.0,0.0,0.15358180929576357,0.07588171135234943
2021-08-01,0.0,0.0,-0.23876059656714685,-0.19179660237934967,-0.2090343119166333,0.16770446507768677,0.0,0.0,0.09884095008738458,0.09386307397179883
2021-09-01,0.0,0.0,-0.2617088396251779,-0.21546655943805543,-0.2193104469823247,0.12460898191798034,0.0,0.0,0.10047086191300716,0.07843431012345452
2021-10-01,0.0,0.0,-0.2617088396251779,-0.21546655943805543,-0.2193104469823247,0.12460898191798034,0.0,0.0,0.10047086191300716,0.07843431012345452
2021-11-01,0.0,0.0,-0.2617088396251779,-0.21546655943805543,-0.2193104469823247,0.12460898191798034,0.0,0.0,0.10047086191300716,0.07843431012345452
2021-12-01,0.0,0.0,-0.2617088396251779,-0.21546655943805543,-0.2193104469823247,0.12460898191798034,0.0,0.0,0.10047086191300716,0.07843431012345452
2022-01-01,0.0,0.0,-0.2617088396251779,-0.21546655943805543,-0.2193104469823247,0.12460898191798034,0.0,0.0,0.10047086191300716,0.07843431012345452
2022-02-01,0.0,-0.2313008483313748,-0.2661356088782283,0.0,-0.22629585815180048,0.08814199660353095,0.0,0.11025818715310899,0.0778675008819565,0.0
2022-03-01,0.0,-0.2313008483313748,-0.2661356088782283,0.0,-0.22629585815180048,0.08814199660353095,0.0,0.11025818715310899,0.0778675008819565,0.0
2022-04-01,0.0,-0.2313008483313748,-0.2661356088782283,0.0,-0.22629585815180048,0.08814199660353095,0.0,0.11025818715310899,0.0778675008819565,0.0
2022-05-01,0.0,-0.2313008483313748,-0.2661356088782283,0.0,-0.22629585815180048,0.08814199660353095,0.0,0.11025818715310899,0.0778675008819565,0.0
2022-06-01,0.0,-0.2485224394425217,-0.33233306206269275,-0.21027897166754808,0.0,0.05315399254060375,0.07582987840721088,0.07988165587942277,0.0,0.0
2022-07-01,0.0,-0.2485224394425217,-0.33233306206269275,-0.21027897166754808,0.0,0.05315399254060375,0.07582987840721088,0.07988165587942277,0.0,0.0
2022-08-01,0.0,-0.2684445144141901,-0.37735112161628387,-0.223697644344265,0.0,0.07248501429274326,0.0,0.028380597255898213,0.029641108076619627,0.0
2022-09-01,0.0,-0.2684445144141901,-0.37735112161628387,-0.223697644344265,0.0,0.07248501429274326,0.0,0.028380597255898213,0.029641108076619627,0.0
2022-10-01,0.0,-0.2949583506644992,-0.4049832244195881,-0.2701893987523102,0.0,0.02251333806664375,0.004531981246017928,-0.0028237068509407233,0.0,0.0
2022-11-01,0.0,-0.2761606533532651,-0.4150345266700794,0.0,-0.2654496389625547,0.012125071938557342,-0.014403102674133144,0.01682700640141037,0.0,0.0
2022-12-01,0.0,-0.16220436342930336,-0.253596977256911,-0.1412718145922896,0.0,0.19169873362457665,0.07906155716078149,0.0,0.172166553936138,0.0
